<?xml version="1.0"?>
<opencv_storage>
<cascade>
  <stageType>BOOST</stageType>
  <featureType>LBP</featureType>
  <height>24</height>
  <width>24</width>
  <stageParams>
    <boostType>GAB</boostType>
    <minHitRate>9.9500000476837158e-01</minHitRate>
    <maxFalseAlarm>5.0000000000000000e-01</maxFalseAlarm>
    <weightTrimRate>9.4999998807907104e-01</weightTrimRate>
    <maxDepth>1</maxDepth>
    <maxWeakCount>100</maxWeakCount></stageParams>
  <featureParams>
    <maxCatCount>256</maxCatCount>
    <featSize>1</featSize></featureParams>
  <stageNum>10</stageNum>
  <stages>
    <!-- stage 0 -->
    <_>
      <maxWeakCount>2</maxWeakCount>
      <stageThreshold>-1.9368617236614227e-01</stageThreshold>
      <weakClassifiers>
        <_>
          <internalNodes>
            0 -1 10 -201329669 -201592653 -1853517561 -170659345
            -208936261 -1056210781 -741084421 -201327617</internalNodes>
          <leafValues>
            -9.8796689510345459e-01 8.6301368474960327e-01</leafValues></_>
        <_>
          <internalNodes>
            0 -1 5 -7077889 -46935597 -216280069 -6302981 -527500801
            1342210944 -342098177 -1025</internalNodes>
          <leafValues>
            -9.7995382547378540e-01 7.9428070783615112e-01</leafValues></_></weakClassifiers></_>
    <!-- stage 1 -->
    <_>
      <maxWeakCount>3</maxWeakCount>
      <stageThreshold>-1.1537756919860840e+00</stageThreshold>
      <weakClassifiers>
        <_>
          <internalNodes>
            0 -1 8 -4456453 -134217765 -238302761 -203426817 -7615829
            -34873173 -82051173 -1</internalNodes>
          <leafValues>
            -9.6783846616744995e-01 7.8118610382080078e-01</leafValues></_>
        <_>
          <internalNodes>
            0 -1 12 -138415685 -67116590 -250088993 -671616545
            -208936053 -70540630 -620233733 -8388609</internalNodes>
          <leafValues>
            -9.3069291114807129e-01 6.9906973838806152e-01</leafValues></_>
        <_>
          <internalNodes>
            0 -1 21 -262449 -552606898 1570471263 1599068127 -78906369
            -885268293 -74712065 -536870945</internalNodes>
          <leafValues>
            -8.8500702381134033e-01 7.6835274696350098e-01</leafValues></_></weakClassifiers></_>
    <!-- stage 2 -->
    <_>
      <maxWeakCount>3</maxWeakCount>
      <stageThreshold>-1.2007912397384644e+00</stageThreshold>
      <weakClassifiers>
        <_>
          <internalNodes>
            0 -1 28 -1 -2108961 -204738081 -2106401 -6294834 -6518144
            -71631105 -1025</internalNodes>
          <leafValues>
            -9.3877053260803223e-01 7.9856115579605103e-01</leafValues></_>
        <_>
          <internalNodes>
            0 -1 4 -5 -2049 -783427589 -9217 -555746422 -807403825 -1057
            -1025</internalNodes>
          <leafValues>
            -8.8893759250640869e-01 7.6641380786895752e-01</leafValues></_>
        <_>
          <internalNodes>
            0 -1 14 -67175682 -548438008 -792669987 1432351197
            -548209986 -882914912 -791805953 -2100225</internalNodes>
          <leafValues>
            -9.3024140596389771e-01 6.2691694498062134e-01</leafValues></_></weakClassifiers></_>
    <!-- stage 3 -->
    <_>
      <maxWeakCount>3</maxWeakCount>
      <stageThreshold>-1.4027453660964966e+00</stageThreshold>
      <weakClassifiers>
        <_>
          <internalNodes>
            0 -1 16 -2097185 -8390657 -151257121 -50331681 -262321 -1
            -1025 -1</internalNodes>
          <leafValues>
            -9.6321541070938110e-01 3.9918366074562073e-01</leafValues></_>
        <_>
          <internalNodes>
            0 -1 9 -1077937221 -4195470 -748691979 -1033 -1073742849
            -4462429 2080373759 -1025</internalNodes>
          <leafValues>
            -9.2154651880264282e-01 5.8362358808517456e-01</leafValues></_>
        <_>
          <internalNodes>
            0 -1 19 -268439553 -268455985 -1486901281 -6145 -4097
            -960495701 -268452865 -1</internalNodes>
          <leafValues>
            -8.8038253784179688e-01 6.9858002662658691e-01</leafValues></_></weakClassifiers></_>
    <!-- stage 4 -->
    <_>
      <maxWeakCount>3</maxWeakCount>
      <stageThreshold>-1.2059950828552246e+00</stageThreshold>
      <weakClassifiers>
        <_>
          <internalNodes>
            0 -1 11 -5393 -807410785 -101982401 -2106401 -2100997
            -893412353 -69470213 -1029</internalNodes>
          <leafValues>
            -9.3515652418136597e-01 6.0609358549118042e-01</leafValues></_>
        <_>
          <internalNodes>
            0 -1 0 -17 -33 -1610876417 -4194833 -6291457 -134489121
            -68157441 -134218753</internalNodes>
          <leafValues>
            -8.8908553123474121e-01 6.6260832548141479e-01</leafValues></_>
        <_>
          <internalNodes>
            0 -1 3 -3147009 -10494993 -80759809 -2097 -1050913
            1706025101 -2049 -201328641</internalNodes>
          <leafValues>
            -9.2300313711166382e-01 6.2705242633819580e-01</leafValues></_></weakClassifiers></_>
    <!-- stage 5 -->
    <_>
      <maxWeakCount>3</maxWeakCount>
      <stageThreshold>-1.4720228910446167e+00</stageThreshold>
      <weakClassifiers>
        <_>
          <internalNodes>
            0 -1 27 -1 -3073 -327937 -9217 -135267122 -10487862
            -84215042 -67371009</internalNodes>
          <leafValues>
            -9.5199590921401978e-01 3.4491315484046936e-01</leafValues></_>
        <_>
          <internalNodes>
            0 -1 20 -16795105 -214223073 -670374689 1936981503
            -1413504321 -4473349 -1613766657 -1029</internalNodes>
          <leafValues>
            -9.0828913450241089e-01 4.4082543253898621e-01</leafValues></_>
        <_>
          <internalNodes>
            0 -1 1 -33554433 -806354961 -537141761 -1185 -1041
            1339030478 1979708919 1474297823</internalNodes>
          <leafValues>
            -9.6085238456726074e-01 4.4513952732086182e-01</leafValues></_></weakClassifiers></_>
    <!-- stage 6 -->
    <_>
      <maxWeakCount>3</maxWeakCount>
      <stageThreshold>-1.4234418869018555e+00</stageThreshold>
      <weakClassifiers>
        <_>
          <internalNodes>
            0 -1 27 -1 -513 -67174689 -1 -2098482 -10489906 -84214018
            -67109889</internalNodes>
          <leafValues>
            -9.4871795177459717e-01 3.7639966607093811e-01</leafValues></_>
        <_>
          <internalNodes>
            0 -1 17 -167780353 -33555973 -141164545 -184551937 -1318964
            -620766211 -1146356790 -50331905</internalNodes>
          <leafValues>
            -9.3219584226608276e-01 3.6428102850914001e-01</leafValues></_>
        <_>
          <internalNodes>
            0 -1 13 -4460101 -2633325 -135007297 1470101299 -1077938005
            -269490436 -134217733 -1</internalNodes>
          <leafValues>
            -8.3900493383407593e-01 5.9590488672256470e-01</leafValues></_></weakClassifiers></_>
    <!-- stage 7 -->
    <_>
      <maxWeakCount>4</maxWeakCount>
      <stageThreshold>-2.0349290370941162e+00</stageThreshold>
      <weakClassifiers>
        <_>
          <internalNodes>
            0 -1 25 -2049 -2099745 -125046017 -134217729 -201589042
            -75517921 -84149506 -67108865</internalNodes>
          <leafValues>
            -9.1317075490951538e-01 6.1000001430511475e-01</leafValues></_>
        <_>
          <internalNodes>
            0 -1 7 532290808 1606359928 -42074113 -4506311 -1087717638
            -1624268064 529171903 -355091</internalNodes>
          <leafValues>
            -8.8909071683883667e-01 5.0029706954956055e-01</leafValues></_>
        <_>
          <internalNodes>
            0 -1 6 -33554433 -67633165 -36184065 -539247105 -1
            -130001420 -73664065 -133121</internalNodes>
          <leafValues>
            -8.4515672922134399e-01 5.8251464366912842e-01</leafValues></_>
        <_>
          <internalNodes>
            0 -1 26 -6162 -134234321 -354686257 1933572095 -11862454
            2003290637 -220202245 -21037057</internalNodes>
          <leafValues>
            -7.7689874172210693e-01 6.7052787542343140e-01</leafValues></_></weakClassifiers></_>
    <!-- stage 8 -->
    <_>
      <maxWeakCount>3</maxWeakCount>
      <stageThreshold>-1.2638026475906372e+00</stageThreshold>
      <weakClassifiers>
        <_>
          <internalNodes>
            0 -1 22 -1025 -134249473 -1958087361 -5255173 -202380549
            -67109895 -68157441 -1</internalNodes>
          <leafValues>
            -9.0209621191024780e-01 5.9571617841720581e-01</leafValues></_>
        <_>
          <internalNodes>
            0 -1 2 -1048833 -290523254 -1034 -13703682 -73402177
            -810577493 -206834958 -34</internalNodes>
          <leafValues>
            -8.5458183288574219e-01 4.9134701490402222e-01</leafValues></_>
        <_>
          <internalNodes>
            0 -1 23 -67115009 -54129 -1915246593 792440831 -20545
            -281573593 -106975329 -281280513</internalNodes>
          <leafValues>
            -8.5305345058441162e-01 5.4630208015441895e-01</leafValues></_></weakClassifiers></_>
    <!-- stage 9 -->
    <_>
      <maxWeakCount>3</maxWeakCount>
      <stageThreshold>-1.3026012182235718e+00</stageThreshold>
      <weakClassifiers>
        <_>
          <internalNodes>
            0 -1 24 -2099969 -273153 -707985409 -1058817 -69207329
            -68577065 -85722113 -5505029</internalNodes>
          <leafValues>
            -9.0054845809936523e-01 4.8930817842483521e-01</leafValues></_>
        <_>
          <internalNodes>
            0 -1 18 -272165 1371248891 160164591 1530900203 -72676646
            -557886445 -877950245 -1025</internalNodes>
          <leafValues>
            -8.5763853788375854e-01 4.8967489600181580e-01</leafValues></_>
        <_>
          <internalNodes>
            0 -1 15 -263718 -551824104 -142608417 404750335 -1615071077
            -14950597 -69225474 -1</internalNodes>
          <leafValues>
            -8.9172768592834473e-01 5.3134810924530029e-01</leafValues></_></weakClassifiers></_></stages>
  <features>
    <_>
      <rect>
        0 0 8 3</rect></_>
    <_>
      <rect>
        1 10 3 3</rect></_>
    <_>
      <rect>
        2 18 1 1</rect></_>
    <_>
      <rect>
        3 3 6 5</rect></_>
    <_>
      <rect>
        5 4 3 5</rect></_>
    <_>
      <rect>
        5 13 5 3</rect></_>
    <_>
      <rect>
        5 15 5 3</rect></_>
    <_>
      <rect>
        5 20 5 1</rect></_>
    <_>
      <rect>
        7 1 2 6</rect></_>
    <_>
      <rect>
        7 8 1 3</rect></_>
    <_>
      <rect>
        8 1 3 5</rect></_>
    <_>
      <rect>
        8 8 1 1</rect></_>
    <_>
      <rect>
        9 0 2 4</rect></_>
    <_>
      <rect>
        10 2 2 3</rect></_>
    <_>
      <rect>
        10 15 2 3</rect></_>
    <_>
      <rect>
        11 0 2 3</rect></_>
    <_>
      <rect>
        12 0 4 5</rect></_>
    <_>
      <rect>
        12 8 4 1</rect></_>
    <_>
      <rect>
        12 9 1 5</rect></_>
    <_>
      <rect>
        12 10 2 2</rect></_>
    <_>
      <rect>
        12 13 1 2</rect></_>
    <_>
      <rect>
        13 10 3 3</rect></_>
    <_>
      <rect>
        14 6 1 3</rect></_>
    <_>
      <rect>
        14 6 2 4</rect></_>
    <_>
      <rect>
        14 7 1 2</rect></_>
    <_>
      <rect>
        15 9 1 1</rect></_>
    <_>
      <rect>
        15 10 1 1</rect></_>
    <_>
      <rect>
        16 16 2 2</rect></_>
    <_>
      <rect>
        17 15 2 3</rect></_></features></cascade>
</opencv_storage>
